FANN_FLO_2.1
num_layers=3
learning_rate=0.700000
connection_rate=1.000000
network_type=0
learning_momentum=0.000000
training_algorithm=2
train_error_function=1
train_stop_function=0
cascade_output_change_fraction=0.010000
quickprop_decay=-0.000100
quickprop_mu=1.750000
rprop_increase_factor=1.200000
rprop_decrease_factor=0.500000
rprop_delta_min=0.000000
rprop_delta_max=50.000000
rprop_delta_zero=0.100000
cascade_output_stagnation_epochs=12
cascade_candidate_change_fraction=0.010000
cascade_candidate_stagnation_epochs=12
cascade_max_out_epochs=150
cascade_min_out_epochs=50
cascade_max_cand_epochs=150
cascade_min_cand_epochs=50
cascade_num_candidate_groups=2
bit_fail_limit=3.49999994039535522461e-01
cascade_candidate_limit=1.00000000000000000000e+03
cascade_weight_multiplier=4.00000005960464477539e-01
cascade_activation_functions_count=10
cascade_activation_functions=3 5 7 8 10 11 14 15 16 17 
cascade_activation_steepnesses_count=4
cascade_activation_steepnesses=2.50000000000000000000e-01 5.00000000000000000000e-01 7.50000000000000000000e-01 1.00000000000000000000e+00 
layer_sizes=6 6 2 
scale_included=0
neurons (num_inputs, activation_function, activation_steepness)=(0, 0, 0.00000000000000000000e+00) (0, 0, 0.00000000000000000000e+00) (0, 0, 0.00000000000000000000e+00) (0, 0, 0.00000000000000000000e+00) (0, 0, 0.00000000000000000000e+00) (0, 0, 0.00000000000000000000e+00) (6, 5, 5.00000000000000000000e-01) (6, 5, 5.00000000000000000000e-01) (6, 5, 5.00000000000000000000e-01) (6, 5, 5.00000000000000000000e-01) (6, 5, 5.00000000000000000000e-01) (0, 5, 0.00000000000000000000e+00) (6, 5, 5.00000000000000000000e-01) (0, 5, 0.00000000000000000000e+00) 
connections (connected_to_neuron, weight)=(0, -2.80252099037170410156e-03) (1, -8.99673253297805786133e-02) (2, 2.57851257920265197754e-02) (3, 5.74823096394538879395e-02) (4, 9.98623445630073547363e-02) (5, -1.18454247713088989258e-02) (0, -1.16998925805091857910e-02) (1, -1.58539116382598876953e-02) (2, -2.67717093229293823242e-02) (3, -7.22101330757141113281e-02) (4, -9.91403460502624511719e-02) (5, -3.31856533885002136230e-02) (0, 1.01351961493492126465e-02) (1, 4.96128574013710021973e-02) (2, 5.81314414739608764648e-03) (3, 4.90205362439155578613e-02) (4, -1.70611590147018432617e-02) (5, 8.80783274769783020020e-02) (0, 3.52392271161079406738e-02) (1, 6.96093663573265075684e-02) (2, -3.90598662197589874268e-02) (3, -6.11303523182868957520e-02) (4, 6.47443532943725585938e-03) (5, -2.27547809481620788574e-02) (0, -8.17054882645606994629e-02) (1, -9.07654315233230590820e-03) (2, -4.90324571728706359863e-02) (3, -8.56659561395645141602e-03) (4, 9.01186093688011169434e-02) (5, -4.58463802933692932129e-02) (6, -3.70159000158309936523e-02) (7, -1.26839131116867065430e-02) (8, -3.58137041330337524414e-02) (9, 8.87692198157310485840e-02) (10, -5.52016012370586395264e-02) (11, -3.59513610601425170898e-02) 
