FANN_FLO_2.1
num_layers=3
learning_rate=0.700000
connection_rate=1.000000
network_type=0
learning_momentum=0.000000
training_algorithm=2
train_error_function=1
train_stop_function=0
cascade_output_change_fraction=0.010000
quickprop_decay=-0.000100
quickprop_mu=1.750000
rprop_increase_factor=1.200000
rprop_decrease_factor=0.500000
rprop_delta_min=0.000000
rprop_delta_max=50.000000
rprop_delta_zero=0.100000
cascade_output_stagnation_epochs=12
cascade_candidate_change_fraction=0.010000
cascade_candidate_stagnation_epochs=12
cascade_max_out_epochs=150
cascade_min_out_epochs=50
cascade_max_cand_epochs=150
cascade_min_cand_epochs=50
cascade_num_candidate_groups=2
bit_fail_limit=3.49999994039535522461e-01
cascade_candidate_limit=1.00000000000000000000e+03
cascade_weight_multiplier=4.00000005960464477539e-01
cascade_activation_functions_count=10
cascade_activation_functions=3 5 7 8 10 11 14 15 16 17 
cascade_activation_steepnesses_count=4
cascade_activation_steepnesses=2.50000000000000000000e-01 5.00000000000000000000e-01 7.50000000000000000000e-01 1.00000000000000000000e+00 
layer_sizes=6 6 2 
scale_included=0
neurons (num_inputs, activation_function, activation_steepness)=(0, 0, 0.00000000000000000000e+00) (0, 0, 0.00000000000000000000e+00) (0, 0, 0.00000000000000000000e+00) (0, 0, 0.00000000000000000000e+00) (0, 0, 0.00000000000000000000e+00) (0, 0, 0.00000000000000000000e+00) (6, 5, 5.00000000000000000000e-01) (6, 5, 5.00000000000000000000e-01) (6, 5, 5.00000000000000000000e-01) (6, 5, 5.00000000000000000000e-01) (6, 5, 5.00000000000000000000e-01) (0, 5, 0.00000000000000000000e+00) (6, 5, 5.00000000000000000000e-01) (0, 5, 0.00000000000000000000e+00) 
connections (connected_to_neuron, weight)=(0, -4.54231798648834228516e-02) (1, -8.14736336469650268555e-02) (2, -9.76815819740295410156e-04) (3, 6.03021606802940368652e-02) (4, 3.55938747525215148926e-02) (5, 8.38298872113227844238e-02) (0, 9.96248498558998107910e-02) (1, 8.45954939723014831543e-02) (2, 9.22737941145896911621e-02) (3, 7.54236057400703430176e-02) (4, 7.60207697749137878418e-02) (5, -4.82877381145954132080e-02) (0, 5.61958774924278259277e-02) (1, -8.50137621164321899414e-02) (2, -8.50558429956436157227e-02) (3, -2.83734500408172607422e-02) (4, 2.53805443644523620605e-02) (5, -9.32790860533714294434e-02) (0, -5.71534596383571624756e-02) (1, 8.11657384037971496582e-02) (2, 3.68027165532112121582e-02) (3, 4.46440950036048889160e-02) (4, -9.79207009077072143555e-02) (5, 8.00971165299415588379e-02) (0, 9.37417671084403991699e-02) (1, 6.70769736170768737793e-02) (2, -3.76656726002693176270e-02) (3, 5.27257397770881652832e-02) (4, 3.33886221051216125488e-02) (5, 6.21710941195487976074e-02) (6, -2.17328965663909912109e-02) (7, 8.79654362797737121582e-02) (8, 8.06974545121192932129e-02) (9, 7.72902891039848327637e-02) (10, 4.82675954699516296387e-02) (11, 1.62913203239440917969e-02) 
