FANN_FLO_2.1
num_layers=5
learning_rate=0.100000
connection_rate=1.000000
network_type=0
learning_momentum=0.200000
training_algorithm=2
train_error_function=1
train_stop_function=0
cascade_output_change_fraction=0.010000
quickprop_decay=-0.000100
quickprop_mu=1.750000
rprop_increase_factor=1.200000
rprop_decrease_factor=0.500000
rprop_delta_min=0.000000
rprop_delta_max=50.000000
rprop_delta_zero=0.100000
cascade_output_stagnation_epochs=12
cascade_candidate_change_fraction=0.010000
cascade_candidate_stagnation_epochs=12
cascade_max_out_epochs=150
cascade_min_out_epochs=50
cascade_max_cand_epochs=150
cascade_min_cand_epochs=50
cascade_num_candidate_groups=2
bit_fail_limit=3.49999994039535522461e-01
cascade_candidate_limit=1.00000000000000000000e+03
cascade_weight_multiplier=4.00000005960464477539e-01
cascade_activation_functions_count=10
cascade_activation_functions=3 5 7 8 10 11 14 15 16 17 
cascade_activation_steepnesses_count=4
cascade_activation_steepnesses=2.50000000000000000000e-01 5.00000000000000000000e-01 7.50000000000000000000e-01 1.00000000000000000000e+00 
layer_sizes=6 11 11 11 2 
scale_included=0
neurons (num_inputs, activation_function, activation_steepness)=(0, 0, 0.00000000000000000000e+00) (0, 0, 0.00000000000000000000e+00) (0, 0, 0.00000000000000000000e+00) (0, 0, 0.00000000000000000000e+00) (0, 0, 0.00000000000000000000e+00) (0, 0, 0.00000000000000000000e+00) (6, 5, 5.00000000000000000000e-01) (6, 5, 5.00000000000000000000e-01) (6, 5, 5.00000000000000000000e-01) (6, 5, 5.00000000000000000000e-01) (6, 5, 5.00000000000000000000e-01) (6, 5, 5.00000000000000000000e-01) (6, 5, 5.00000000000000000000e-01) (6, 5, 5.00000000000000000000e-01) (6, 5, 5.00000000000000000000e-01) (6, 5, 5.00000000000000000000e-01) (0, 5, 0.00000000000000000000e+00) (11, 5, 5.00000000000000000000e-01) (11, 5, 5.00000000000000000000e-01) (11, 5, 5.00000000000000000000e-01) (11, 5, 5.00000000000000000000e-01) (11, 5, 5.00000000000000000000e-01) (11, 5, 5.00000000000000000000e-01) (11, 5, 5.00000000000000000000e-01) (11, 5, 5.00000000000000000000e-01) (11, 5, 5.00000000000000000000e-01) (11, 5, 5.00000000000000000000e-01) (0, 5, 0.00000000000000000000e+00) (11, 5, 5.00000000000000000000e-01) (11, 5, 5.00000000000000000000e-01) (11, 5, 5.00000000000000000000e-01) (11, 5, 5.00000000000000000000e-01) (11, 5, 5.00000000000000000000e-01) (11, 5, 5.00000000000000000000e-01) (11, 5, 5.00000000000000000000e-01) (11, 5, 5.00000000000000000000e-01) (11, 5, 5.00000000000000000000e-01) (11, 5, 5.00000000000000000000e-01) (0, 5, 0.00000000000000000000e+00) (11, 5, 5.00000000000000000000e-01) (0, 5, 0.00000000000000000000e+00) 
connections (connected_to_neuron, weight)=(0, 3.45844238281250000000e+02) (1, 6.09452366828918457031e-01) (2, 9.84799206256866455078e-01) (3, 1.11786067485809326172e+00) (4, 9.23671782016754150391e-01) (5, 7.05296874046325683594e-01) (0, 1.71081155538558959961e-01) (1, 1.81011185050010681152e-01) (2, -2.64627307653427124023e-01) (3, 1.49592623114585876465e-01) (4, -3.59790697693824768066e-02) (5, -1.67272850871086120605e-01) (0, -7.40169659256935119629e-02) (1, 4.11484390497207641602e-01) (2, -9.83061417937278747559e-02) (3, -7.95451253652572631836e-02) (4, -4.83756847679615020752e-02) (5, -7.13001117110252380371e-02) (0, 1.49637194824218750000e+03) (1, -1.23894758224487304688e+01) (2, 5.40695190429687500000e-01) (3, 1.25865697860717773438e+00) (4, 7.89843052625656127930e-02) (5, -3.40046691894531250000e+00) (0, 1.00758649408817291260e-01) (1, 5.90044796466827392578e-01) (2, 1.56033903360366821289e-01) (3, 3.75631973147392272949e-02) (4, -2.37466450780630111694e-02) (5, 7.88335949182510375977e-02) (0, 2.62633144855499267578e-01) (1, 3.31676632165908813477e-01) (2, -1.43762379884719848633e-01) (3, -2.17163562774658203125e-01) (4, -1.84953883290290832520e-01) (5, -5.48569299280643463135e-02) (0, 5.45018672943115234375e-01) (1, 5.28224050998687744141e-01) (2, 1.86673060059547424316e-01) (3, 6.44108355045318603516e-02) (4, -1.90167546272277832031e+00) (5, -6.97209089994430541992e-02) (0, 3.70075136423110961914e-01) (1, 8.61900925636291503906e-01) (2, 4.89226847887039184570e-01) (3, 6.82500824332237243652e-02) (4, -1.49079501628875732422e+00) (5, -1.84055054187774658203e+00) (0, 1.66388336181640625000e+02) (1, 8.79549145698547363281e-01) (2, 1.03965401649475097656e+00) (3, 1.81655001640319824219e+00) (4, 1.55711245536804199219e+00) (5, 8.87005150318145751953e-01) (0, 1.11776605248451232910e-01) (1, 7.97184482216835021973e-02) (2, -1.48150503635406494141e-01) (3, -3.16731631755828857422e-01) (4, 1.73473805189132690430e-01) (5, 4.43113669753074645996e-02) (6, 9.36195924878120422363e-02) (7, 6.63538513183593750000e+01) (8, 2.41407608032226562500e+02) (9, 2.41309523582458496094e-01) (10, -1.59190499782562255859e+00) (11, -5.94713973999023437500e+01) (12, -2.08133354783058166504e-01) (13, 2.78874225616455078125e+01) (14, 2.44762003421783447266e-01) (15, 2.38374924659729003906e+00) (16, 1.63516819477081298828e-01) (6, -5.77702331542968750000e+00) (7, 8.37691497802734375000e+01) (8, 1.05206880569458007812e+01) (9, -6.56972599029541015625e+00) (10, 4.99477310180664062500e+01) (11, 1.80652770996093750000e+01) (12, -1.76707019805908203125e+01) (13, -5.07962512969970703125e+00) (14, -5.88446712493896484375e+00) (15, 2.91510486602783203125e+01) (16, -5.63156175613403320312e+00) (6, 5.81983268260955810547e-01) (7, 3.43163728713989257812e+00) (8, -5.72908036410808563232e-02) (9, 5.15275657176971435547e-01) (10, -8.08761894702911376953e-01) (11, -9.14368569850921630859e-01) (12, -1.21477317810058593750e+00) (13, -2.17394733428955078125e+00) (14, 4.91691112518310546875e-01) (15, -6.83814954757690429688e+00) (16, 4.07541096210479736328e-01) (6, -4.86548453569412231445e-01) (7, 4.51033935546875000000e+01) (8, -4.95027124881744384766e-01) (9, -4.69750404357910156250e-01) (10, -6.52418255805969238281e-01) (11, 1.85604643821716308594e+00) (12, 3.39171671867370605469e+00) (13, -8.30628156661987304688e-01) (14, -5.35873889923095703125e-01) (15, 1.34632577896118164062e+01) (16, -4.43640291690826416016e-01) (6, -1.16987600922584533691e-01) (7, 5.36529159545898437500e+00) (8, -8.66284430027008056641e-01) (9, -3.44515323638916015625e-01) (10, 8.33995878696441650391e-01) (11, -5.13451814651489257812e+00) (12, 2.45377945899963378906e+00) (13, -1.50952816009521484375e-01) (14, -6.13468252122402191162e-02) (15, 1.60349428653717041016e+00) (16, 4.25195783376693725586e-01) (6, 4.80592846870422363281e-01) (7, 1.31996536254882812500e+01) (8, 4.50133991241455078125e+00) (9, 1.91650494933128356934e-01) (10, 2.99719929695129394531e+00) (11, 2.88127732276916503906e+00) (12, 1.58033704757690429688e+01) (13, 5.14244174957275390625e+00) (14, 5.30042946338653564453e-01) (15, -6.12778186798095703125e+00) (16, 9.99314904212951660156e-01) (6, -1.59575045108795166016e+00) (7, -1.96458496093750000000e+02) (8, -7.06044387817382812500e+00) (9, -1.69703209400177001953e+00) (10, 1.18380752563476562500e+02) (11, 3.19548473358154296875e+01) (12, -4.76784400939941406250e+01) (13, 4.80574188232421875000e+01) (14, -1.72769796848297119141e+00) (15, 9.01686096191406250000e+00) (16, -4.14694458246231079102e-01) (6, 2.56426811218261718750e-01) (7, 9.73233184814453125000e+01) (8, -5.70569574832916259766e-01) (9, 2.71568298339843750000e-01) (10, -1.33388686180114746094e+00) (11, 9.53592002391815185547e-01) (12, -4.82634391784667968750e+01) (13, 6.03417968750000000000e+01) (14, 1.77972435951232910156e-01) (15, 3.12382873535156250000e+02) (16, 2.50185906887054443359e-01) (6, -2.16254532337188720703e-01) (7, 4.86352294683456420898e-01) (8, 1.42506778240203857422e+00) (9, -1.38917118310928344727e-01) (10, 7.60607659816741943359e-01) (11, 7.80346453189849853516e-01) (12, -3.65356683731079101562e+00) (13, -3.70420753955841064453e-01) (14, -6.70086145401000976562e-02) (15, 2.87706136703491210938e+00) (16, 3.32853525876998901367e-01) (6, 2.23738968372344970703e-01) (7, 3.36704101562500000000e+02) (8, 3.41594886779785156250e+01) (9, -3.90822947025299072266e-01) (10, 4.06909027099609375000e+02) (11, 5.18609094619750976562e+00) (12, 5.32970428466796875000e+01) (13, -7.64188232421875000000e+02) (14, 1.97554215788841247559e-01) (15, -2.28650787353515625000e+02) (16, 4.27785068750381469727e-01) (17, 1.69227933883666992188e+00) (18, 1.55024623870849609375e+00) (19, -3.88313710689544677734e-01) (20, 7.67083823680877685547e-01) (21, 3.40404243469238281250e+01) (22, 5.35430812835693359375e+00) (23, 2.75538134574890136719e+00) (24, 6.66274595260620117188e+00) (25, 1.73237667083740234375e+01) (26, -2.16531419754028320312e+00) (27, -2.84784827381372451782e-02) (17, 5.51590633392333984375e+00) (18, 5.39000988006591796875e-01) (19, 3.29426879882812500000e+01) (20, -2.50014615058898925781e+00) (21, -7.30690383911132812500e+00) (22, -1.58674693107604980469e+00) (23, -2.65630435943603515625e+00) (24, 3.09232692718505859375e+01) (25, -2.88576412200927734375e+01) (26, 1.11059856414794921875e+01) (27, 5.14190626144409179688e+00) (17, -1.57406300306320190430e-01) (18, 3.22812020778656005859e-01) (19, -2.58504539728164672852e-01) (20, 8.03732681274414062500e+00) (21, 2.65362215042114257812e+00) (22, 4.67735099792480468750e+00) (23, 5.30923128128051757812e-01) (24, -1.25784611701965332031e+00) (25, -1.48443841934204101562e+00) (26, -1.92139148712158203125e-01) (27, -2.87033617496490478516e-01) (17, -4.38031435012817382812e+00) (18, 1.77359085083007812500e+02) (19, -7.99326049804687500000e+02) (20, 4.26782043457031250000e+02) (21, -1.50000000000000000000e+03) (22, 1.85981960296630859375e+01) (23, -1.50000000000000000000e+03) (24, 1.50000000000000000000e+03) (25, 1.50000000000000000000e+03) (26, -5.97096862792968750000e+02) (27, -2.97381000518798828125e+01) (17, 2.41829365491867065430e-01) (18, 1.60238802433013916016e+00) (19, -3.21467924118041992188e+00) (20, 1.45289158821105957031e+00) (21, 1.98202848434448242188e+00) (22, 6.97649240493774414062e+00) (23, 1.60916674137115478516e+00) (24, 3.73015940189361572266e-01) (25, -5.16102015972137451172e-01) (26, 3.73664402961730957031e+00) (27, 8.35372805595397949219e-02) (17, 1.07295322418212890625e+01) (18, 6.06462717056274414062e+00) (19, 8.98162424564361572266e-01) (20, -4.63305950164794921875e-01) (21, -9.80659961700439453125e+00) (22, -9.77684974670410156250e-01) (23, 8.76069068908691406250e+00) (24, 9.65195465087890625000e+00) (25, -1.22368478775024414062e+01) (26, -6.78320109844207763672e-01) (27, 1.45571425557136535645e-01) (17, -2.39723280072212219238e-01) (18, -9.45024907588958740234e-01) (19, 1.41668534278869628906e+00) (20, 1.73985195159912109375e+00) (21, 4.26159667968750000000e+00) (22, 2.31888294219970703125e+00) (23, 1.13396786153316497803e-01) (24, 7.05300569534301757812e-01) (25, 1.14688360691070556641e+00) (26, -7.73258686065673828125e-01) (27, 5.11569142341613769531e-01) (17, -1.00653505325317382812e+01) (18, -3.34549560546875000000e+01) (19, 4.25410079956054687500e+00) (20, -3.35214346647262573242e-01) (21, 1.09406080245971679688e+01) (22, -3.23781013488769531250e+00) (23, 4.58181667327880859375e+00) (24, -1.79292833805084228516e+00) (25, 2.87142677307128906250e+01) (26, 9.91710662841796875000e+00) (27, 2.93315172195434570312e+00) (17, 9.29920196533203125000e+00) (18, 2.93972551822662353516e-01) (19, 2.39396500587463378906e+00) (20, 3.37999105453491210938e+00) (21, -5.21684694290161132812e+00) (22, 1.09293985366821289062e+01) (23, 2.01295757293701171875e+00) (24, -4.87655162811279296875e+00) (25, -1.98926353454589843750e+01) (26, 5.71411699056625366211e-02) (27, 2.75186300277709960938e+00) (17, 8.87178838253021240234e-01) (18, 9.48620289564132690430e-02) (19, 9.10671691894531250000e+01) (20, 1.75187337398529052734e+00) (21, 3.98038655519485473633e-01) (22, -4.13348960876464843750e+00) (23, 3.26804637908935546875e+00) (24, -4.22509536743164062500e+01) (25, -7.14069747924804687500e+01) (26, 1.18974895477294921875e+01) (27, 1.14079213142395019531e+00) (28, 1.79831981658935546875e-01) (29, -5.72553396224975585938e-01) (30, 5.75322270393371582031e-01) (31, 5.47302246093750000000e-01) (32, 2.34344124794006347656e+00) (33, 1.25454843044281005859e+00) (34, -1.66727507114410400391e+00) (35, -7.92366087436676025391e-01) (36, -1.52343070507049560547e+00) (37, -7.81040549278259277344e-01) (38, -2.29062028229236602783e-02) 
