FANN_FLO_2.1
num_layers=4
learning_rate=0.100000
connection_rate=1.000000
network_type=0
learning_momentum=0.200000
training_algorithm=2
train_error_function=1
train_stop_function=0
cascade_output_change_fraction=0.010000
quickprop_decay=-0.000100
quickprop_mu=1.750000
rprop_increase_factor=1.200000
rprop_decrease_factor=0.500000
rprop_delta_min=0.000000
rprop_delta_max=50.000000
rprop_delta_zero=0.100000
cascade_output_stagnation_epochs=12
cascade_candidate_change_fraction=0.010000
cascade_candidate_stagnation_epochs=12
cascade_max_out_epochs=150
cascade_min_out_epochs=50
cascade_max_cand_epochs=150
cascade_min_cand_epochs=50
cascade_num_candidate_groups=2
bit_fail_limit=3.49999994039535522461e-01
cascade_candidate_limit=1.00000000000000000000e+03
cascade_weight_multiplier=4.00000005960464477539e-01
cascade_activation_functions_count=10
cascade_activation_functions=3 5 7 8 10 11 14 15 16 17 
cascade_activation_steepnesses_count=4
cascade_activation_steepnesses=2.50000000000000000000e-01 5.00000000000000000000e-01 7.50000000000000000000e-01 1.00000000000000000000e+00 
layer_sizes=6 4 4 2 
scale_included=0
neurons (num_inputs, activation_function, activation_steepness)=(0, 0, 0.00000000000000000000e+00) (0, 0, 0.00000000000000000000e+00) (0, 0, 0.00000000000000000000e+00) (0, 0, 0.00000000000000000000e+00) (0, 0, 0.00000000000000000000e+00) (0, 0, 0.00000000000000000000e+00) (6, 5, 5.00000000000000000000e-01) (6, 5, 5.00000000000000000000e-01) (6, 5, 5.00000000000000000000e-01) (0, 5, 0.00000000000000000000e+00) (4, 5, 5.00000000000000000000e-01) (4, 5, 5.00000000000000000000e-01) (4, 5, 5.00000000000000000000e-01) (0, 5, 0.00000000000000000000e+00) (4, 5, 5.00000000000000000000e-01) (0, 5, 0.00000000000000000000e+00) 
connections (connected_to_neuron, weight)=(0, -1.58213540911674499512e-01) (1, -4.13633435964584350586e-01) (2, 2.96567678451538085938e-01) (3, 7.21572101116180419922e-01) (4, -7.86221325397491455078e-02) (5, 1.41841530799865722656e-01) (0, 4.21771168708801269531e-01) (1, 6.96002066135406494141e-01) (2, 9.24552083015441894531e-02) (3, -2.71672397851943969727e-01) (4, -6.10193192958831787109e-01) (5, 1.46441400051116943359e-01) (0, -1.74115371704101562500e+00) (1, 4.44150492548942565918e-02) (2, 2.76217150688171386719e+00) (3, -2.23599478602409362793e-01) (4, 4.65415030717849731445e-01) (5, 3.07504665106534957886e-02) (6, -1.02099502086639404297e+00) (7, 1.55480444431304931641e+00) (8, -1.52064964175224304199e-01) (9, 3.42723667621612548828e-01) (6, -5.88378369808197021484e-01) (7, 4.19142991304397583008e-01) (8, 2.05793902277946472168e-01) (9, -7.23070979118347167969e-01) (6, 2.55714631080627441406e+00) (7, -7.56742238998413085938e-01) (8, 4.75969791412353515625e-01) (9, 1.40425145626068115234e-01) (10, 2.46015286445617675781e+00) (11, 4.79004651308059692383e-01) (12, -1.16149067878723144531e+00) (13, 4.37768965959548950195e-01) 
