FANN_FLO_2.1
num_layers=5
learning_rate=0.100000
connection_rate=1.000000
network_type=0
learning_momentum=0.200000
training_algorithm=2
train_error_function=1
train_stop_function=0
cascade_output_change_fraction=0.010000
quickprop_decay=-0.000100
quickprop_mu=1.750000
rprop_increase_factor=1.200000
rprop_decrease_factor=0.500000
rprop_delta_min=0.000000
rprop_delta_max=50.000000
rprop_delta_zero=0.100000
cascade_output_stagnation_epochs=12
cascade_candidate_change_fraction=0.010000
cascade_candidate_stagnation_epochs=12
cascade_max_out_epochs=150
cascade_min_out_epochs=50
cascade_max_cand_epochs=150
cascade_min_cand_epochs=50
cascade_num_candidate_groups=2
bit_fail_limit=3.49999994039535522461e-01
cascade_candidate_limit=1.00000000000000000000e+03
cascade_weight_multiplier=4.00000005960464477539e-01
cascade_activation_functions_count=10
cascade_activation_functions=3 5 7 8 10 11 14 15 16 17 
cascade_activation_steepnesses_count=4
cascade_activation_steepnesses=2.50000000000000000000e-01 5.00000000000000000000e-01 7.50000000000000000000e-01 1.00000000000000000000e+00 
layer_sizes=6 16 16 16 2 
scale_included=0
neurons (num_inputs, activation_function, activation_steepness)=(0, 0, 0.00000000000000000000e+00) (0, 0, 0.00000000000000000000e+00) (0, 0, 0.00000000000000000000e+00) (0, 0, 0.00000000000000000000e+00) (0, 0, 0.00000000000000000000e+00) (0, 0, 0.00000000000000000000e+00) (6, 5, 5.00000000000000000000e-01) (6, 5, 5.00000000000000000000e-01) (6, 5, 5.00000000000000000000e-01) (6, 5, 5.00000000000000000000e-01) (6, 5, 5.00000000000000000000e-01) (6, 5, 5.00000000000000000000e-01) (6, 5, 5.00000000000000000000e-01) (6, 5, 5.00000000000000000000e-01) (6, 5, 5.00000000000000000000e-01) (6, 5, 5.00000000000000000000e-01) (6, 5, 5.00000000000000000000e-01) (6, 5, 5.00000000000000000000e-01) (6, 5, 5.00000000000000000000e-01) (6, 5, 5.00000000000000000000e-01) (6, 5, 5.00000000000000000000e-01) (0, 5, 0.00000000000000000000e+00) (16, 5, 5.00000000000000000000e-01) (16, 5, 5.00000000000000000000e-01) (16, 5, 5.00000000000000000000e-01) (16, 5, 5.00000000000000000000e-01) (16, 5, 5.00000000000000000000e-01) (16, 5, 5.00000000000000000000e-01) (16, 5, 5.00000000000000000000e-01) (16, 5, 5.00000000000000000000e-01) (16, 5, 5.00000000000000000000e-01) (16, 5, 5.00000000000000000000e-01) (16, 5, 5.00000000000000000000e-01) (16, 5, 5.00000000000000000000e-01) (16, 5, 5.00000000000000000000e-01) (16, 5, 5.00000000000000000000e-01) (16, 5, 5.00000000000000000000e-01) (0, 5, 0.00000000000000000000e+00) (16, 5, 5.00000000000000000000e-01) (16, 5, 5.00000000000000000000e-01) (16, 5, 5.00000000000000000000e-01) (16, 5, 5.00000000000000000000e-01) (16, 5, 5.00000000000000000000e-01) (16, 5, 5.00000000000000000000e-01) (16, 5, 5.00000000000000000000e-01) (16, 5, 5.00000000000000000000e-01) (16, 5, 5.00000000000000000000e-01) (16, 5, 5.00000000000000000000e-01) (16, 5, 5.00000000000000000000e-01) (16, 5, 5.00000000000000000000e-01) (16, 5, 5.00000000000000000000e-01) (16, 5, 5.00000000000000000000e-01) (16, 5, 5.00000000000000000000e-01) (0, 5, 0.00000000000000000000e+00) (16, 5, 5.00000000000000000000e-01) (0, 5, 0.00000000000000000000e+00) 
connections (connected_to_neuron, weight)=(0, -7.85473287105560302734e-01) (1, 1.01206071674823760986e-01) (2, 5.93916893005371093750e-01) (3, 2.14041590690612792969e+00) (4, -3.69143396615982055664e-01) (5, 3.86072963476181030273e-01) (0, 1.49998156738281250000e+03) (1, 2.15773031115531921387e-01) (2, 2.29607880115509033203e-01) (3, 1.61786273121833801270e-01) (4, 1.28808176517486572266e+00) (5, 2.31715157628059387207e-01) (0, 4.69680316746234893799e-02) (1, 5.37238121032714843750e-01) (2, -3.68830338120460510254e-02) (3, -7.80842185020446777344e-01) (4, 9.29839983582496643066e-02) (5, 4.99458657577633857727e-03) (0, 6.74704253673553466797e-01) (1, 5.78717231750488281250e-01) (2, 5.94945251941680908203e-01) (3, 4.49055284261703491211e-01) (4, 1.01004552841186523438e+00) (5, 6.91952466964721679688e-01) (0, -1.60942208021879196167e-02) (1, 4.96224910020828247070e-01) (2, -5.54835796356201171875e-01) (3, -1.96597844362258911133e-01) (4, 1.31785571575164794922e-01) (5, 4.01092246174812316895e-02) (0, 9.37909558415412902832e-02) (1, -3.12167406082153320312e-01) (2, -1.79035782814025878906e-01) (3, -8.39971482753753662109e-01) (4, 1.58459439873695373535e-01) (5, -8.60337316989898681641e-02) (0, 8.18255186080932617188e-01) (1, 6.56907260417938232422e-01) (2, 5.21451771259307861328e-01) (3, 6.00063860416412353516e-01) (4, 1.14673221111297607422e+00) (5, 5.31248807907104492188e-01) (0, 5.36513268947601318359e-01) (1, 1.58420875668525695801e-01) (2, 4.78717774152755737305e-01) (3, 1.12314081192016601562e+00) (4, 8.15556466579437255859e-01) (5, 2.09525883197784423828e-01) (0, 6.85543358325958251953e-01) (1, 6.62843108177185058594e-01) (2, 6.59907341003417968750e-01) (3, 2.08915039896965026855e-01) (4, 2.71297788619995117188e+00) (5, 4.94121253490447998047e-01) (0, -1.20804774761199951172e+00) (1, 1.69518813490867614746e-01) (2, 1.90158307552337646484e-01) (3, 7.74964690208435058594e-01) (4, 8.73229920864105224609e-01) (5, 2.32040375471115112305e-01) (0, 2.28369049727916717529e-02) (1, -2.95949399471282958984e-01) (2, -1.07384882867336273193e-01) (3, -7.39800572395324707031e-01) (4, 5.40181957185268402100e-02) (5, -3.33610475063323974609e-01) (0, 7.58525431156158447266e-01) (1, 5.05432367324829101562e-01) (2, -2.84491837024688720703e-01) (3, -1.72179356217384338379e-01) (4, -2.26197123527526855469e-01) (5, -3.36804002523422241211e-01) (0, 1.25798791646957397461e-01) (1, 4.21777158975601196289e-01) (2, 2.45042175054550170898e-01) (3, -1.93871527910232543945e-01) (4, -5.32002389430999755859e-01) (5, 3.07198643684387207031e-01) (0, -8.11480522155761718750e-01) (1, -9.34017598628997802734e-02) (2, 7.28853881359100341797e-01) (3, -1.89636290073394775391e-01) (4, 9.44895565509796142578e-01) (5, 7.49683082103729248047e-01) (0, 3.04081708192825317383e-01) (1, 2.85521358251571655273e-01) (2, 4.82121825218200683594e-01) (3, -2.79165327548980712891e-01) (4, -3.84670078754425048828e-01) (5, 9.94407199323177337646e-03) (6, 6.15062522888183593750e+00) (7, 6.81765079498291015625e-01) (8, -2.46573181152343750000e+01) (9, 7.04845786094665527344e-01) (10, 8.62697315216064453125e+00) (11, -3.24120044708251953125e-01) (12, 7.29850172996520996094e-01) (13, 1.42957687377929687500e+00) (14, 5.50741553306579589844e-01) (15, 1.16430749893188476562e+01) (16, -2.80099600553512573242e-01) (17, 6.52284336090087890625e+00) (18, -2.02778190374374389648e-01) (19, 4.32194900512695312500e+00) (20, 1.98074221611022949219e-01) (21, 8.17985773086547851562e-01) (6, 6.82996749877929687500e-01) (7, 1.58824253082275390625e+00) (8, -5.67258071899414062500e+00) (9, 1.52395212650299072266e+00) (10, 1.04353437423706054688e+01) (11, 9.51661840081214904785e-02) (12, 1.56962752342224121094e+00) (13, 2.19130063056945800781e+00) (14, 1.35194110870361328125e+00) (15, 1.63626015186309814453e+00) (16, 1.36989980936050415039e-01) (17, 4.61953849792480468750e+01) (18, 1.45334887504577636719e+00) (19, 1.55041277408599853516e+00) (20, -1.07153854370117187500e+01) (21, 1.47377872467041015625e+00) (6, -3.63036572933197021484e-01) (7, 2.61196643114089965820e-01) (8, 7.42434692382812500000e+00) (9, 3.29924076795578002930e-01) (10, 5.57893753051757812500e+00) (11, 1.31283450126647949219e+00) (12, 2.83373296260833740234e-01) (13, 1.76170155405998229980e-01) (14, 1.63726821541786193848e-01) (15, 1.40471506118774414062e+00) (16, 1.24915921688079833984e+00) (17, 3.40610891580581665039e-02) (18, 1.06248026713728904724e-02) (19, -5.75432920455932617188e+00) (20, 2.36309155821800231934e-01) (21, 3.38596493005752563477e-01) (6, 1.43244302272796630859e+00) (7, 7.52737343311309814453e-01) (8, -1.99001102447509765625e+01) (9, 7.84318685531616210938e-01) (10, 6.95785474777221679688e+00) (11, -1.91556319594383239746e-01) (12, 6.65086746215820312500e-01) (13, 1.04712486267089843750e+00) (14, 7.88574516773223876953e-01) (15, 1.00221834182739257812e+01) (16, -2.59253736585378646851e-02) (17, 7.66927862167358398438e+00) (18, -1.68430507183074951172e+00) (19, 5.78591060638427734375e+00) (20, 1.36015936732292175293e-01) (21, 7.08623647689819335938e-01) (6, 9.21600627899169921875e+00) (7, 1.62744307518005371094e+00) (8, -6.35365791320800781250e+01) (9, 1.66193437576293945312e+00) (10, -5.29655113220214843750e+01) (11, -5.81348299980163574219e-01) (12, 1.54016935825347900391e+00) (13, 2.34455013275146484375e+00) (14, 1.62145483493804931641e+00) (15, 1.15428123474121093750e+01) (16, -2.94377774000167846680e-01) (17, 1.51541509628295898438e+01) (18, 1.16624617576599121094e+00) (19, 1.64754009246826171875e+01) (20, 3.00759315490722656250e+00) (21, 1.69740033149719238281e+00) (6, 4.10448133945465087891e-01) (7, -1.97783112525939941406e-01) (8, 2.42233314514160156250e+01) (9, -2.43072003126144409180e-01) (10, 5.58002567291259765625e+00) (11, 1.08895862102508544922e+00) (12, -3.39090198278427124023e-01) (13, 3.21674704551696777344e-01) (14, -3.62471044063568115234e-01) (15, 4.66927558183670043945e-01) (16, 1.01673328876495361328e+00) (17, 3.86581077575683593750e+01) (18, -5.22511824965476989746e-02) (19, -7.35619688034057617188e+00) (20, -2.15679973363876342773e-01) (21, -1.84450790286064147949e-01) (6, -2.96526044607162475586e-01) (7, 2.95236676931381225586e-01) (8, -7.52113342285156250000e-01) (9, 4.02884870767593383789e-01) (10, 1.52156698703765869141e+00) (11, 1.13757562637329101562e+00) (12, 3.40738117694854736328e-01) (13, 3.58191668987274169922e-01) (14, 3.84944289922714233398e-01) (15, -3.65748673677444458008e-01) (16, 9.74182069301605224609e-01) (17, 5.36205530166625976562e-01) (18, 3.19103449583053588867e-01) (19, -2.43762567639350891113e-01) (20, 5.43483018875122070312e-01) (21, 3.99252742528915405273e-01) (6, -7.18865450471639633179e-03) (7, 8.29267621040344238281e-01) (8, -3.18694090843200683594e+00) (9, 7.53320217132568359375e-01) (10, 2.57132506370544433594e+00) (11, 7.72248029708862304688e-01) (12, 8.76786470413208007812e-01) (13, 1.53989768028259277344e+00) (14, 5.78594088554382324219e-01) (15, 3.76940757036209106445e-01) (16, 7.93308317661285400391e-01) (17, 1.25460433959960937500e+01) (18, 1.35378217697143554688e+01) (19, 4.95299100875854492188e-01) (20, -9.62839007377624511719e-01) (21, 7.49871313571929931641e-01) (6, 1.09644941985607147217e-01) (7, 6.97167277336120605469e-01) (8, 2.62079262733459472656e+00) (9, 6.95400118827819824219e-01) (10, 1.06674313545227050781e+00) (11, 7.68016397953033447266e-01) (12, 6.66175723075866699219e-01) (13, 5.58052539825439453125e-01) (14, 4.67352271080017089844e-01) (15, 1.96991190314292907715e-01) (16, 7.34872281551361083984e-01) (17, 6.52796089649200439453e-01) (18, 5.76912522315979003906e-01) (19, -2.85270571708679199219e-01) (20, 4.80183333158493041992e-01) (21, 6.80264651775360107422e-01) (6, 6.04176521301269531250e-01) (7, -6.52307197451591491699e-02) (8, -1.47708964347839355469e+00) (9, -8.49300622940063476562e-02) (10, 1.80753934383392333984e+00) (11, 4.62381273508071899414e-01) (12, 5.91819733381271362305e-02) (13, 2.22539693117141723633e-01) (14, -1.22987352311611175537e-01) (15, 4.10029232501983642578e-01) (16, 3.98890644311904907227e-01) (17, 6.86550617218017578125e-01) (18, -2.96764135360717773438e-01) (19, 6.31132245063781738281e-01) (20, -6.98546171188354492188e-02) (21, -7.28608444333076477051e-02) (6, -2.47966721653938293457e-01) (7, 1.31596818566322326660e-01) (8, 1.12754248082637786865e-01) (9, 2.22333624958992004395e-01) (10, 1.06830656528472900391e+00) (11, 1.28398656845092773438e+00) (12, 3.20236921310424804688e-01) (13, 4.91835981607437133789e-01) (14, 3.06653112173080444336e-01) (15, -1.47981598973274230957e-01) (16, 1.23142457008361816406e+00) (17, 6.13263666629791259766e-01) (18, 4.76373612880706787109e-01) (19, -2.16817364096641540527e-01) (20, 5.30521452426910400391e-01) (21, 1.31399199366569519043e-01) (6, 5.06412982940673828125e-01) (7, -6.21654838323593139648e-02) (8, -5.90432596206665039062e+00) (9, 8.76269638538360595703e-02) (10, -4.01606783270835876465e-02) (11, 4.67818647623062133789e-01) (12, 7.00160861015319824219e-02) (13, 2.38787010312080383301e-01) (14, 6.95016160607337951660e-02) (15, 5.75011909008026123047e-01) (16, 5.00570714473724365234e-01) (17, -6.81592756882309913635e-03) (18, 1.27531874179840087891e+00) (19, 4.72866445779800415039e-01) (20, -1.12864673137664794922e-02) (21, 5.44685907661914825439e-02) (6, -4.24439996480941772461e-01) (7, 2.00824052095413208008e-01) (8, 7.06321668624877929688e+00) (9, 2.04798623919486999512e-01) (10, 3.72960376739501953125e+00) (11, 1.13342773914337158203e+00) (12, 1.17473654448986053467e-01) (13, 7.29516968131065368652e-02) (14, 1.92128866910934448242e-01) (15, -7.87784218788146972656e-01) (16, 1.18650019168853759766e+00) (17, 2.95575827360153198242e-01) (18, -2.35022592544555664062e+00) (19, -3.76467287540435791016e-01) (20, 4.68910604715347290039e-01) (21, 1.83286339044570922852e-01) (6, -7.12819993495941162109e-02) (7, 4.48448508977890014648e-01) (8, -2.83885121345520019531e-01) (9, 4.64950174093246459961e-01) (10, 9.47230458259582519531e-01) (11, 9.28218722343444824219e-01) (12, 2.72845327854156494141e-01) (13, 3.40701192617416381836e-01) (14, 3.99040609598159790039e-01) (15, 1.21466992422938346863e-02) (16, 1.11535036563873291016e+00) (17, 6.34527325630187988281e-01) (18, 5.79428017139434814453e-01) (19, -2.25328147411346435547e-01) (20, 4.31778967380523681641e-01) (21, 2.67227470874786376953e-01) (6, 6.06797277927398681641e-01) (7, 7.10636526346206665039e-02) (8, -2.63424180448055267334e-02) (9, -6.71779364347457885742e-02) (10, 1.41053095459938049316e-01) (11, 5.06145775318145751953e-01) (12, -4.31050062179565429688e-02) (13, 1.71431362628936767578e-01) (14, -7.13049322366714477539e-02) (15, -1.52919515967369079590e-01) (16, 4.85022962093353271484e-01) (17, -1.85031875967979431152e-01) (18, 3.05872589349746704102e-01) (19, 5.43452024459838867188e-01) (20, 3.47282141447067260742e-02) (21, 4.86699817702174186707e-03) (22, 3.65788340568542480469e-01) (23, 6.02870345115661621094e-01) (24, -3.06965088844299316406e+00) (25, 3.58090490102767944336e-01) (26, -2.75104093551635742188e+00) (27, -1.36684334278106689453e+00) (28, 4.07820796966552734375e+00) (29, 2.20539316534996032715e-01) (30, 3.05919319391250610352e-01) (31, -4.06488513946533203125e+00) (32, 6.87067389488220214844e-01) (33, 3.18635374307632446289e-01) (34, 2.85940742492675781250e+00) (35, -1.84320783615112304688e+00) (36, -6.10873413085937500000e+00) (37, 1.44339893013238906860e-02) (22, 4.72953617572784423828e-02) (23, 4.54788237810134887695e-01) (24, 4.35451805591583251953e-01) (25, 7.79233127832412719727e-02) (26, 1.17331273853778839111e-01) (27, 2.16814422607421875000e+00) (28, -7.55395984649658203125e+00) (29, 3.76508116722106933594e-01) (30, 6.30052566528320312500e-01) (31, -3.53662347793579101562e+00) (32, 1.12422955036163330078e+00) (33, -7.08991512656211853027e-02) (34, 6.04100465774536132812e-01) (35, -7.32083940505981445312e+00) (36, -2.34370678663253784180e-01) (37, 5.45699633657932281494e-02) (22, 2.76957601308822631836e-01) (23, 6.48505449295043945312e-01) (24, 4.09951746463775634766e-01) (25, 3.49425911903381347656e-01) (26, 2.30095952749252319336e-01) (27, -1.19300019741058349609e+00) (28, 1.02936065196990966797e+00) (29, 3.55784565210342407227e-01) (30, 1.30630064010620117188e+00) (31, 4.59094941616058349609e-01) (32, 9.50604259967803955078e-01) (33, 5.29562652111053466797e-01) (34, 3.62184882164001464844e-01) (35, -4.24038648605346679688e+00) (36, -2.28093700408935546875e+01) (37, 1.95603400468826293945e-01) (22, 2.97016531229019165039e-01) (23, -1.13512374460697174072e-01) (24, 8.47507536411285400391e-01) (25, 3.76757293939590454102e-01) (26, 4.82691466808319091797e-01) (27, 3.58536958694458007812e-01) (28, -1.41669976711273193359e+00) (29, -2.36464068293571472168e-01) (30, 9.87803518772125244141e-01) (31, -2.28785112500190734863e-01) (32, 3.97546678781509399414e-01) (33, -5.52837789058685302734e-01) (34, 8.48017811775207519531e-01) (35, 1.82945036888122558594e+00) (36, -1.30398950576782226562e+01) (37, 3.22549313306808471680e-01) (22, 2.51370596885681152344e+00) (23, 2.66963505744934082031e+00) (24, 1.70308992266654968262e-01) (25, 2.21825528144836425781e+00) (26, 1.51778161525726318359e+00) (27, 9.51370239257812500000e+00) (28, -6.81505918502807617188e+00) (29, 9.59643006324768066406e-01) (30, -3.54276156425476074219e+00) (31, 3.17107524871826171875e+01) (32, -8.21365165710449218750e+00) (33, -3.92068290710449218750e+00) (34, 1.02924406528472900391e+00) (35, 1.90226614475250244141e+00) (36, -3.68975219726562500000e+01) (37, 2.69310861825942993164e-01) (22, 2.23498031497001647949e-01) (23, 3.76658231019973754883e-01) (24, 5.80725491046905517578e-01) (25, 4.52066153287887573242e-01) (26, -6.68857157230377197266e-01) (27, -1.49863433837890625000e+00) (28, -6.25313878059387207031e-01) (29, 2.53705203533172607422e-01) (30, -2.49963700771331787109e-01) (31, -4.63434398174285888672e-01) (32, 6.26966118812561035156e-01) (33, 2.72030651569366455078e-01) (34, 8.50260198116302490234e-01) (35, -2.26619079709053039551e-01) (36, -9.46551322937011718750e-01) (37, -1.32586345076560974121e-01) (22, 1.17314124107360839844e+00) (23, 1.48839175701141357422e+00) (24, -2.70141124725341796875e-01) (25, 1.37610566616058349609e+00) (26, 2.82184338569641113281e+00) (27, 9.98405075073242187500e+00) (28, -1.04337339401245117188e+01) (29, 1.02637350559234619141e+00) (30, 9.33515727519989013672e-01) (31, -9.95531082153320312500e+00) (32, 1.01348233222961425781e+00) (33, 2.64672303199768066406e+00) (34, -1.04813829064369201660e-01) (35, -3.91207275390625000000e+01) (36, 2.59384021759033203125e+01) (37, 1.55698144435882568359e+00) (22, 7.61263310909271240234e-01) (23, -3.90255689620971679688e-01) (24, -2.48283329010009765625e+01) (25, 6.78189992904663085938e-01) (26, -4.83534622192382812500e+00) (27, -1.42392277717590332031e+00) (28, -1.77999198436737060547e-01) (29, -4.84378784894943237305e-01) (30, -2.10371131896972656250e+01) (31, 1.52475109100341796875e+01) (32, -8.19942092895507812500e+01) (33, -1.19818935394287109375e+01) (34, 1.81993103027343750000e+01) (35, 1.87092196941375732422e+00) (36, 1.78836395263671875000e+02) (37, 3.61280173063278198242e-01) (22, 2.11397856473922729492e-01) (23, -2.40216210484504699707e-01) (24, 5.85670590400695800781e-01) (25, 2.46256619691848754883e-01) (26, 2.92826443910598754883e-02) (27, 2.54034948348999023438e+00) (28, 8.21722946166992187500e+01) (29, -3.14697057008743286133e-01) (30, -4.07692790031433105469e-03) (31, -5.57746267318725585938e+00) (32, 1.74071445465087890625e+01) (33, 1.28699665069580078125e+01) (34, -2.45281314849853515625e+00) (35, 1.41430234909057617188e+00) (36, 3.66918563842773437500e+01) (37, 3.30170094966888427734e-01) (22, 4.68813896179199218750e-01) (23, 8.09038579463958740234e-01) (24, 8.38020503520965576172e-01) (25, 4.55414801836013793945e-01) (26, 5.87225794792175292969e-01) (27, -7.56390511989593505859e-01) (28, -1.03863821029663085938e+01) (29, 8.09707462787628173828e-01) (30, -1.17170348763465881348e-01) (31, -3.07738590240478515625e+00) (32, 4.66545829772949218750e+01) (33, 3.65667114257812500000e+01) (34, 4.06132817268371582031e-01) (35, 9.08586597442626953125e+00) (36, -1.90104007720947265625e+01) (37, 1.67050048708915710449e-01) (22, 3.04694086313247680664e-01) (23, 5.12739479541778564453e-01) (24, 6.31221711635589599609e-01) (25, 3.28236013650894165039e-01) (26, -6.20963573455810546875e-01) (27, -2.70956099033355712891e-01) (28, 2.43857562541961669922e-01) (29, 2.06359386444091796875e-01) (30, 4.46141332387924194336e-01) (31, 1.14163912832736968994e-01) (32, 5.15614986419677734375e-01) (33, 2.99052625894546508789e-01) (34, 8.84207606315612792969e-01) (35, -3.26077198982238769531e+00) (36, 1.48720610141754150391e+00) (37, -5.55461160838603973389e-02) (22, 6.26013398170471191406e-01) (23, -1.45997498184442520142e-02) (24, 1.09867799282073974609e+00) (25, 4.87742245197296142578e-01) (26, 2.18852292746305465698e-02) (27, -1.40620863437652587891e+00) (28, -1.35756607055664062500e+01) (29, -2.96331029385328292847e-02) (30, 1.57882003784179687500e+01) (31, 4.09641304016113281250e+01) (32, 3.93353729248046875000e+01) (33, -3.27037925720214843750e+01) (34, 1.42391109466552734375e+00) (35, 4.62858886718750000000e+01) (36, -1.44678756713867187500e+02) (37, 3.81600737571716308594e-01) (22, 2.36416444182395935059e-01) (23, 1.10885894298553466797e+00) (24, 7.26794064044952392578e-01) (25, 1.34175851941108703613e-01) (26, 4.96336892247200012207e-02) (27, -1.79213032126426696777e-01) (28, -1.08908784389495849609e+00) (29, 6.51174664497375488281e-01) (30, 2.19092226028442382812e+00) (31, -8.87053871154785156250e+00) (32, -1.63245990872383117676e-01) (33, 9.49690520763397216797e-01) (34, 5.61151683330535888672e-01) (35, -9.80377256870269775391e-01) (36, 3.93030128479003906250e+01) (37, 2.45617941021919250488e-01) (22, 6.54403805732727050781e-01) (23, 4.83039051294326782227e-01) (24, 6.24492645263671875000e-01) (25, 5.73731362819671630859e-01) (26, 6.81788146495819091797e-01) (27, 4.54661756753921508789e-01) (28, 1.10437402725219726562e+01) (29, 2.15934082865715026855e-01) (30, 1.20217347145080566406e+00) (31, -2.80455279350280761719e+00) (32, 1.01196134090423583984e+00) (33, 1.17616152763366699219e+00) (34, 1.00087523460388183594e+00) (35, 3.72723388671875000000e+00) (36, -2.95821552276611328125e+01) (37, 7.06815719604492187500e-01) (22, 9.95820105075836181641e-01) (23, 2.73530840873718261719e-01) (24, 2.65997737646102905273e-01) (25, 1.61444115638732910156e+00) (26, -2.20999383926391601562e+00) (27, 1.54098466038703918457e-01) (28, 3.68292121887207031250e+01) (29, -4.05314773321151733398e-01) (30, 2.68748245239257812500e+01) (31, -8.40639114379882812500e+01) (32, 4.24462280273437500000e+01) (33, -2.22733116149902343750e+01) (34, 5.90488791465759277344e-01) (35, 1.17404403686523437500e+01) (36, -2.17914062500000000000e+02) (37, 1.33678212761878967285e-01) (38, 8.06026637554168701172e-01) (39, 2.13853001594543457031e+00) (40, 7.50100791454315185547e-01) (41, 6.17360830307006835938e-01) (42, 1.04984533786773681641e+00) (43, 2.05259108543395996094e+00) (44, -1.20414793491363525391e+00) (45, 2.50292205810546875000e+00) (46, 1.60699760913848876953e+00) (47, 2.67666196823120117188e+00) (48, 1.95236861705780029297e+00) (49, 1.49119699001312255859e+00) (50, 1.42307710647583007812e+00) (51, 1.39925503730773925781e+00) (52, 1.50381541252136230469e+00) (53, 5.24537444114685058594e-01) 
