FANN_FLO_2.1
num_layers=5
learning_rate=0.100000
connection_rate=1.000000
network_type=0
learning_momentum=0.200000
training_algorithm=2
train_error_function=1
train_stop_function=0
cascade_output_change_fraction=0.010000
quickprop_decay=-0.000100
quickprop_mu=1.750000
rprop_increase_factor=1.200000
rprop_decrease_factor=0.500000
rprop_delta_min=0.000000
rprop_delta_max=50.000000
rprop_delta_zero=0.100000
cascade_output_stagnation_epochs=12
cascade_candidate_change_fraction=0.010000
cascade_candidate_stagnation_epochs=12
cascade_max_out_epochs=150
cascade_min_out_epochs=50
cascade_max_cand_epochs=150
cascade_min_cand_epochs=50
cascade_num_candidate_groups=2
bit_fail_limit=3.49999994039535522461e-01
cascade_candidate_limit=1.00000000000000000000e+03
cascade_weight_multiplier=4.00000005960464477539e-01
cascade_activation_functions_count=10
cascade_activation_functions=3 5 7 8 10 11 14 15 16 17 
cascade_activation_steepnesses_count=4
cascade_activation_steepnesses=2.50000000000000000000e-01 5.00000000000000000000e-01 7.50000000000000000000e-01 1.00000000000000000000e+00 
layer_sizes=6 16 16 16 2 
scale_included=0
neurons (num_inputs, activation_function, activation_steepness)=(0, 0, 0.00000000000000000000e+00) (0, 0, 0.00000000000000000000e+00) (0, 0, 0.00000000000000000000e+00) (0, 0, 0.00000000000000000000e+00) (0, 0, 0.00000000000000000000e+00) (0, 0, 0.00000000000000000000e+00) (6, 5, 5.00000000000000000000e-01) (6, 5, 5.00000000000000000000e-01) (6, 5, 5.00000000000000000000e-01) (6, 5, 5.00000000000000000000e-01) (6, 5, 5.00000000000000000000e-01) (6, 5, 5.00000000000000000000e-01) (6, 5, 5.00000000000000000000e-01) (6, 5, 5.00000000000000000000e-01) (6, 5, 5.00000000000000000000e-01) (6, 5, 5.00000000000000000000e-01) (6, 5, 5.00000000000000000000e-01) (6, 5, 5.00000000000000000000e-01) (6, 5, 5.00000000000000000000e-01) (6, 5, 5.00000000000000000000e-01) (6, 5, 5.00000000000000000000e-01) (0, 5, 0.00000000000000000000e+00) (16, 5, 5.00000000000000000000e-01) (16, 5, 5.00000000000000000000e-01) (16, 5, 5.00000000000000000000e-01) (16, 5, 5.00000000000000000000e-01) (16, 5, 5.00000000000000000000e-01) (16, 5, 5.00000000000000000000e-01) (16, 5, 5.00000000000000000000e-01) (16, 5, 5.00000000000000000000e-01) (16, 5, 5.00000000000000000000e-01) (16, 5, 5.00000000000000000000e-01) (16, 5, 5.00000000000000000000e-01) (16, 5, 5.00000000000000000000e-01) (16, 5, 5.00000000000000000000e-01) (16, 5, 5.00000000000000000000e-01) (16, 5, 5.00000000000000000000e-01) (0, 5, 0.00000000000000000000e+00) (16, 5, 5.00000000000000000000e-01) (16, 5, 5.00000000000000000000e-01) (16, 5, 5.00000000000000000000e-01) (16, 5, 5.00000000000000000000e-01) (16, 5, 5.00000000000000000000e-01) (16, 5, 5.00000000000000000000e-01) (16, 5, 5.00000000000000000000e-01) (16, 5, 5.00000000000000000000e-01) (16, 5, 5.00000000000000000000e-01) (16, 5, 5.00000000000000000000e-01) (16, 5, 5.00000000000000000000e-01) (16, 5, 5.00000000000000000000e-01) (16, 5, 5.00000000000000000000e-01) (16, 5, 5.00000000000000000000e-01) (16, 5, 5.00000000000000000000e-01) (0, 5, 0.00000000000000000000e+00) (16, 5, 5.00000000000000000000e-01) (0, 5, 0.00000000000000000000e+00) 
connections (connected_to_neuron, weight)=(0, 3.98872256278991699219e-01) (1, 3.52934479713439941406e-01) (2, 4.70726966857910156250e-01) (3, 1.32117912173271179199e-01) (4, 9.01949107646942138672e-02) (5, 4.34416532516479492188e-01) (0, 4.77508604526519775391e-01) (1, 5.75198709964752197266e-01) (2, 3.65027666091918945312e-01) (3, 2.08883687853813171387e-01) (4, 3.30770790576934814453e-01) (5, 4.76268053054809570312e-01) (0, 1.35700896382331848145e-01) (1, 2.23489984869956970215e-01) (2, -1.34899392724037170410e-01) (3, -1.19468882679939270020e-01) (4, -3.31198394298553466797e-01) (5, -1.29388198256492614746e-01) (0, -2.82533526420593261719e-01) (1, -2.81487643718719482422e-01) (2, -2.56876111030578613281e-01) (3, 2.89025127887725830078e-01) (4, 3.15495938062667846680e-01) (5, -1.04178279638290405273e-01) (0, 2.99704730510711669922e-01) (1, 1.45426839590072631836e-01) (2, 2.06806257367134094238e-01) (3, -1.04702568054199218750e+00) (4, -2.26680472493171691895e-01) (5, 2.01878830790519714355e-01) (0, 2.23534479737281799316e-01) (1, -2.55120843648910522461e-01) (2, -6.16021752357482910156e-01) (3, -3.85574609041213989258e-01) (4, -5.06838917732238769531e-01) (5, -5.58940410614013671875e-01) (0, -1.03329628705978393555e-01) (1, -2.16509923338890075684e-01) (2, -1.64210334420204162598e-01) (3, 2.91825413703918457031e-01) (4, 3.20668190717697143555e-01) (5, -1.29712119698524475098e-01) (0, -1.58792972564697265625e-01) (1, -7.83983469009399414062e-02) (2, -2.64897286891937255859e-01) (3, -1.69350579380989074707e-01) (4, 3.22073996067047119141e-01) (5, -2.51449227333068847656e-01) (0, 4.51626658439636230469e-01) (1, 3.75326633453369140625e-01) (2, 3.93562853336334228516e-01) (3, 9.37483459711074829102e-02) (4, 4.51414994895458221436e-02) (5, 3.53007555007934570312e-01) (0, 4.23077821731567382812e-01) (1, 3.48988294601440429688e-01) (2, 3.66321802139282226562e-01) (3, 1.41402915120124816895e-01) (4, 2.60043919086456298828e-01) (5, 3.72328698635101318359e-01) (0, 3.67537736892700195312e-01) (1, 3.70833396911621093750e-01) (2, 4.80935335159301757812e-01) (3, 3.37597191333770751953e-01) (4, 5.56005716323852539062e-01) (5, 7.44843304157257080078e-01) (0, 1.08537636697292327881e-02) (1, -9.98935997486114501953e-02) (2, 1.07717178761959075928e-02) (3, 3.43392252922058105469e-01) (4, 1.62280604243278503418e-01) (5, -2.46112979948520660400e-02) (0, 2.50268727540969848633e-04) (1, 2.91263639926910400391e-01) (2, 1.70953311026096343994e-02) (3, -9.15847569704055786133e-02) (4, -2.24730148911476135254e-01) (5, -2.66739279031753540039e-02) (0, 1.33644372224807739258e-01) (1, 1.14312872290611267090e-01) (2, 5.23800887167453765869e-02) (3, -2.20873430371284484863e-01) (4, -4.05733466148376464844e-01) (5, 1.61487013101577758789e-01) (0, 2.00062483549118041992e-01) (1, -1.28803402185440063477e-01) (2, -6.10940217971801757812e-01) (3, -2.39424228668212890625e-01) (4, -4.53772187232971191406e-01) (5, -4.90800261497497558594e-01) (6, 1.37166798114776611328e-01) (7, 1.46027833223342895508e-01) (8, 4.46897715330123901367e-01) (9, -1.96045622229576110840e-01) (10, 5.34387350082397460938e-01) (11, 6.03798404335975646973e-03) (12, -2.03771993517875671387e-01) (13, -7.28978812694549560547e-02) (14, 1.86186566948890686035e-01) (15, 9.52236950397491455078e-02) (16, 1.12264543771743774414e-01) (17, -1.62784054875373840332e-01) (18, 4.33729290962219238281e-01) (19, 4.74844574928283691406e-01) (20, 4.72151115536689758301e-03) (21, -8.96081328392028808594e-02) (6, 1.00867450237274169922e-01) (7, 1.41894757747650146484e-01) (8, -1.03711915016174316406e+00) (9, 1.98098331689834594727e-01) (10, -2.10916250944137573242e-02) (11, 9.51985478401184082031e-01) (12, 2.56760329008102416992e-01) (13, 9.43976998329162597656e-01) (14, 2.20070883631706237793e-01) (15, 2.36298009753227233887e-01) (16, 2.20447227358818054199e-01) (17, 2.93072968721389770508e-01) (18, -5.64474582672119140625e-01) (19, -8.71243715286254882812e-01) (20, 9.45199966430664062500e-01) (21, 9.43721294403076171875e-01) (6, 1.24301004409790039062e+00) (7, 1.21380329132080078125e+00) (8, -7.61544331908226013184e-03) (9, -2.77898132801055908203e-01) (10, 5.45693933963775634766e-01) (11, -5.29588758945465087891e-03) (12, -1.13678753376007080078e-01) (13, 1.36640831828117370605e-01) (14, 1.34051024913787841797e+00) (15, 1.39692533016204833984e+00) (16, 1.28114330768585205078e+00) (17, -2.30902954936027526855e-01) (18, -1.80910497903823852539e-01) (19, 2.97654159367084503174e-02) (20, -1.13241985440254211426e-01) (21, 2.82857298851013183594e-01) (6, 1.48022547364234924316e-01) (7, 1.52909353375434875488e-01) (8, -2.02197119593620300293e-01) (9, 5.29799401760101318359e-01) (10, -8.01229029893875122070e-02) (11, 4.29330587387084960938e-01) (12, 5.04308164119720458984e-01) (13, 5.29156327247619628906e-01) (14, 3.23025107383728027344e-01) (15, 1.98354080319404602051e-01) (16, 3.20819973945617675781e-01) (17, 6.26746714115142822266e-01) (18, -1.68237075209617614746e-01) (19, -1.68149814009666442871e-01) (20, 3.10516387224197387695e-01) (21, 3.63454520702362060547e-01) (6, 9.22047019004821777344e-01) (7, 8.25541734695434570312e-01) (8, -5.62316700816154479980e-02) (9, -3.62194538116455078125e-01) (10, 5.36884665489196777344e-01) (11, -6.32608234882354736328e-02) (12, -1.99243232607841491699e-01) (13, 1.08664453029632568359e-01) (14, 8.88257086277008056641e-01) (15, 8.17130029201507568359e-01) (16, 7.88487970829010009766e-01) (17, -7.33911395072937011719e-02) (18, 3.63203883171081542969e-01) (19, -1.90067261457443237305e-01) (20, -9.51237827539443969727e-02) (21, 1.80255472660064697266e-01) (6, 7.10387587547302246094e-01) (7, 6.80839896202087402344e-01) (8, 1.47280976176261901855e-01) (9, -8.69479402899742126465e-03) (10, 2.27017655968666076660e-01) (11, -1.44887134432792663574e-01) (12, 7.74097070097923278809e-02) (13, -1.81800369173288345337e-02) (14, 7.09326207637786865234e-01) (15, 6.65749907493591308594e-01) (16, 8.27318727970123291016e-01) (17, 7.66321122646331787109e-02) (18, 3.13754886388778686523e-01) (19, -5.26328794658184051514e-02) (20, 2.61140353977680206299e-02) (21, 1.96011796593666076660e-01) (6, 1.32113873958587646484e-01) (7, 2.35806062817573547363e-01) (8, 5.92196881771087646484e-01) (9, -1.89856037497520446777e-01) (10, 5.70097982883453369141e-01) (11, 1.36181682348251342773e-01) (12, -5.48812039196491241455e-02) (13, -7.92796909809112548828e-02) (14, 1.13858133554458618164e-01) (15, 1.02334946393966674805e-01) (16, 1.17714017629623413086e-01) (17, -2.54905909299850463867e-01) (18, 3.46008419990539550781e-01) (19, 5.64078986644744873047e-01) (20, -1.09551064670085906982e-02) (21, -5.14301545917987823486e-02) (6, -4.74149361252784729004e-03) (7, -5.95653541386127471924e-02) (8, 4.41229969263076782227e-01) (9, 1.60115569829940795898e-01) (10, 1.07611566781997680664e-01) (11, 2.26143762469291687012e-01) (12, 1.05427339673042297363e-01) (13, 1.83576926589012145996e-01) (14, -1.22697144746780395508e-01) (15, -1.58388778567314147949e-01) (16, -8.81417095661163330078e-02) (17, 1.73003360629081726074e-01) (18, 1.06710612773895263672e-01) (19, 5.12705802917480468750e-01) (20, 1.89607724547386169434e-01) (21, 1.50586038827896118164e-01) (6, -1.52599856257438659668e-01) (7, -4.66186553239822387695e-04) (8, 5.55916666984558105469e-01) (9, 2.78719216585159301758e-01) (10, 1.32521912455558776855e-01) (11, 2.89802789688110351562e-01) (12, 2.42592141032218933105e-01) (13, -1.46526008844375610352e-01) (14, -5.55307753384113311768e-02) (15, -1.63906320929527282715e-01) (16, -1.67432740330696105957e-01) (17, 1.34044960141181945801e-01) (18, 4.89941477775573730469e-01) (19, 4.81088072061538696289e-01) (20, 3.39425086975097656250e-01) (21, 2.54441678524017333984e-01) (6, 9.38835382461547851562e-01) (7, 9.25963819026947021484e-01) (8, 3.54084260761737823486e-02) (9, -7.99390375614166259766e-02) (10, 3.24035823345184326172e-01) (11, -1.45053490996360778809e-01) (12, -7.15594887733459472656e-02) (13, 1.77646055817604064941e-03) (14, 8.49397540092468261719e-01) (15, 7.97519981861114501953e-01) (16, 9.08829212188720703125e-01) (17, -4.02903221547603607178e-02) (18, 2.38703772425651550293e-01) (19, 2.64806121587753295898e-01) (20, -1.32422037422657012939e-02) (21, 1.58455967903137207031e-01) (6, 9.19579744338989257812e-01) (7, 8.70067119598388671875e-01) (8, 3.59309203922748565674e-02) (9, -2.50540375709533691406e-01) (10, 5.28790116310119628906e-01) (11, -9.14173871278762817383e-02) (12, -2.45796129107475280762e-01) (13, 1.50490745902061462402e-01) (14, 8.97516071796417236328e-01) (15, 9.20248389244079589844e-01) (16, 9.44799482822418212891e-01) (17, -2.00187847018241882324e-01) (18, 2.00316771864891052246e-01) (19, 7.11926966905593872070e-02) (20, -9.30281281471252441406e-02) (21, -4.95159253478050231934e-03) (6, 3.48969578742980957031e-01) (7, 3.34277868270874023438e-01) (8, 5.13552904129028320312e-01) (9, 6.54470920562744140625e-02) (10, 8.48985195159912109375e-01) (11, 3.05421233177185058594e-01) (12, -4.48229968547821044922e-01) (13, 5.88919855654239654541e-02) (14, 3.44919919967651367188e-01) (15, 2.38287463784217834473e-01) (16, 2.15084150433540344238e-01) (17, -4.86801892518997192383e-01) (18, 1.09064832329750061035e-01) (19, 5.65442681312561035156e-01) (20, 2.62877196073532104492e-01) (21, -6.11872337758541107178e-02) (6, -9.25073981285095214844e-01) (7, -8.76101255416870117188e-01) (8, 2.77790546417236328125e-01) (9, 6.83490753173828125000e-01) (10, -2.53451526165008544922e-01) (11, 2.55222529172897338867e-01) (12, 4.70681935548782348633e-01) (13, 1.48029923439025878906e-01) (14, -1.02209722995758056641e+00) (15, -9.17094826698303222656e-01) (16, -8.77181887626647949219e-01) (17, 5.37166118621826171875e-01) (18, 1.59701734781265258789e-01) (19, 2.49393180012702941895e-01) (20, 2.63109892606735229492e-01) (21, -6.67553097009658813477e-02) (6, 6.43718481063842773438e-01) (7, 6.44291639328002929688e-01) (8, 2.19505861401557922363e-01) (9, 1.09061926603317260742e-01) (10, 2.75691568851470947266e-01) (11, -9.65615212917327880859e-02) (12, 1.08111105859279632568e-01) (13, -2.38697174936532974243e-02) (14, 7.21326768398284912109e-01) (15, 7.14456975460052490234e-01) (16, 7.26298749446868896484e-01) (17, 5.51940537989139556885e-02) (18, 1.98380127549171447754e-01) (19, -1.07245370745658874512e-01) (20, -9.98991280794143676758e-02) (21, 2.25112810730934143066e-01) (6, -9.50659275054931640625e-01) (7, -8.85538935661315917969e-01) (8, 3.08869928121566772461e-01) (9, 5.82753717899322509766e-01) (10, -2.67866581678390502930e-01) (11, 2.74276763200759887695e-01) (12, 3.44774246215820312500e-01) (13, 1.44358128309249877930e-01) (14, -8.48789334297180175781e-01) (15, -8.73387098312377929688e-01) (16, -9.72033500671386718750e-01) (17, 5.72160303592681884766e-01) (18, 2.81161695718765258789e-01) (19, 2.97821998596191406250e-01) (20, 3.06799024343490600586e-01) (21, -3.93668524920940399170e-02) (22, 2.91973352432250976562e-01) (23, -1.19666382670402526855e-01) (24, -5.67135214805603027344e-03) (25, -1.34047746658325195312e-01) (26, 9.99833643436431884766e-02) (27, 2.74409390985965728760e-02) (28, 2.55676180124282836914e-01) (29, 6.73502832651138305664e-02) (30, 2.23884314298629760742e-01) (31, 7.76151344180107116699e-02) (32, 5.75702264904975891113e-02) (33, 1.61189711093902587891e+00) (34, 1.49284332990646362305e-01) (35, 7.10113346576690673828e-02) (36, 1.35511606931686401367e-01) (37, -1.71266719698905944824e-02) (22, -4.54564131796360015869e-02) (23, 4.47260200977325439453e-01) (24, 2.14683115482330322266e-01) (25, 3.57930839061737060547e-01) (26, 1.42420113086700439453e-01) (27, 3.39249849319458007812e-01) (28, -1.27792619168758392334e-02) (29, 4.74534705281257629395e-02) (30, 9.89136099815368652344e-02) (31, 1.13189160823822021484e-01) (32, 2.14976340532302856445e-01) (33, -1.17506563663482666016e+00) (34, 9.45170372724533081055e-02) (35, 2.36575946211814880371e-01) (36, 1.38823211193084716797e-01) (37, 1.70003920793533325195e-01) (22, 8.02051186561584472656e-01) (23, -7.51097559928894042969e-01) (24, -1.32290855050086975098e-01) (25, -5.92109203338623046875e-01) (26, -9.48440581560134887695e-02) (27, 1.30480349063873291016e-01) (28, 6.97975158691406250000e-01) (29, 3.18679928779602050781e-01) (30, 2.57456064224243164062e-01) (31, -5.83478473126888275146e-02) (32, -7.60809779167175292969e-02) (33, 2.77130007743835449219e-01) (34, 4.33436512947082519531e-01) (35, 1.82071268558502197266e-01) (36, 3.41844201087951660156e-01) (37, -2.07598730921745300293e-01) (22, 8.37574481964111328125e-01) (23, -6.47508382797241210938e-01) (24, -9.76064950227737426758e-02) (25, -4.60376292467117309570e-01) (26, -1.82391211390495300293e-01) (27, 6.78068771958351135254e-02) (28, 8.40838372707366943359e-01) (29, 3.37189257144927978516e-01) (30, 2.84129440784454345703e-01) (31, -1.04305699467658996582e-01) (32, -1.71651765704154968262e-01) (33, 3.95263254642486572266e-01) (34, 4.50098097324371337891e-01) (35, 3.60392257571220397949e-02) (36, 3.88906419277191162109e-01) (37, -4.66747283935546875000e-01) (22, 7.36768484115600585938e-01) (23, -6.29886746406555175781e-01) (24, -4.30043756961822509766e-01) (25, -4.80913072824478149414e-01) (26, -1.64139941334724426270e-01) (27, 1.22989252209663391113e-01) (28, 6.82129025459289550781e-01) (29, 3.04584026336669921875e-01) (30, 2.85308241844177246094e-01) (31, -3.05277585983276367188e-01) (32, -6.02838955819606781006e-02) (33, 3.61802518367767333984e-01) (34, 4.72759157419204711914e-01) (35, 1.76869064569473266602e-01) (36, 4.95376378297805786133e-01) (37, -4.08562898635864257812e-01) (22, -1.36843711137771606445e-01) (23, 3.80978852510452270508e-01) (24, 1.46145462989807128906e-01) (25, 3.52710098028182983398e-01) (26, 2.31874331831932067871e-01) (27, 2.65168666839599609375e-01) (28, -1.34363129734992980957e-01) (29, 2.00339138507843017578e-01) (30, 1.62731781601905822754e-01) (31, 1.60804897546768188477e-01) (32, 2.80536979436874389648e-01) (33, -1.24293577671051025391e+00) (34, 3.29785048961639404297e-02) (35, 2.56617724895477294922e-01) (36, 3.48915755748748779297e-02) (37, 2.10681557655334472656e-01) (22, -2.61116862297058105469e-01) (23, 2.65802770853042602539e-01) (24, 7.13747590780258178711e-02) (25, 6.76141083240509033203e-01) (26, -2.44395926594734191895e-01) (27, 4.52949814498424530029e-02) (28, -4.63346809148788452148e-01) (29, -6.28303289413452148438e-02) (30, -8.46813172101974487305e-02) (31, 5.85837475955486297607e-02) (32, 6.56065791845321655273e-02) (33, -6.06139183044433593750e-01) (34, 5.71647465229034423828e-01) (35, -3.82362790405750274658e-02) (36, 4.50084030628204345703e-01) (37, 9.37092900276184082031e-02) (22, 2.46480211615562438965e-01) (23, -8.98147821426391601562e-02) (24, 1.39459982514381408691e-01) (25, -1.39911100268363952637e-01) (26, 1.15241304039955139160e-01) (27, 1.18437021970748901367e-01) (28, 4.13887292146682739258e-01) (29, 1.48961842060089111328e-01) (30, 9.75497215986251831055e-02) (31, 1.26385837793350219727e-01) (32, 1.21928647160530090332e-01) (33, 1.69017708301544189453e+00) (34, 3.02193343639373779297e-01) (35, -3.91643904149532318115e-02) (36, 1.32505774497985839844e-01) (37, 7.85794109106063842773e-03) (22, 8.66851925849914550781e-01) (23, -6.85616970062255859375e-01) (24, -4.04797755181789398193e-02) (25, -4.37086731195449829102e-01) (26, -4.08545397222042083740e-02) (27, 7.69670680165290832520e-02) (28, 7.22750365734100341797e-01) (29, 2.64037191867828369141e-01) (30, 3.25890660285949707031e-01) (31, -8.45570415258407592773e-02) (32, -1.68519839644432067871e-01) (33, 3.01301002502441406250e-01) (34, 4.68634516000747680664e-01) (35, 1.37578129768371582031e-01) (36, 5.05855858325958251953e-01) (37, -4.61202800273895263672e-01) (22, -3.87971758842468261719e-01) (23, 2.92666941881179809570e-01) (24, 4.72381971776485443115e-02) (25, 8.57361197471618652344e-01) (26, 1.65084019303321838379e-01) (27, -2.63075418770313262939e-02) (28, -4.59376960992813110352e-01) (29, 4.36411239206790924072e-02) (30, 3.53346504271030426025e-02) (31, 7.34598934650421142578e-02) (32, 1.35792374610900878906e-01) (33, -4.29357290267944335938e-01) (34, 4.64036345481872558594e-01) (35, 9.64107364416122436523e-02) (36, 5.15216350555419921875e-01) (37, 7.17625319957733154297e-02) (22, 7.26821660995483398438e-01) (23, -6.51060461997985839844e-01) (24, -1.66838601231575012207e-01) (25, -4.36870306730270385742e-01) (26, -3.88270281255245208740e-02) (27, 1.42231032252311706543e-01) (28, 6.71529054641723632812e-01) (29, 2.98331379890441894531e-01) (30, 2.78340816497802734375e-01) (31, -1.39577820897102355957e-01) (32, -4.23654876649379730225e-02) (33, 3.90033066272735595703e-01) (34, 5.25227129459381103516e-01) (35, 1.58799201250076293945e-01) (36, 3.38741540908813476562e-01) (37, -4.51365351676940917969e-01) (22, 2.55554407835006713867e-01) (23, -1.73563316464424133301e-01) (24, -1.91062986850738525391e-02) (25, -1.10420823097229003906e-01) (26, 1.36165618896484375000e-02) (27, 3.74579764902591705322e-02) (28, 2.55585759878158569336e-01) (29, 8.88461917638778686523e-02) (30, 2.16432034969329833984e-01) (31, 1.10546097159385681152e-01) (32, -1.72508358955383300781e-02) (33, 1.62726318836212158203e+00) (34, 1.99746608734130859375e-01) (35, 8.91270339488983154297e-02) (36, 2.17879414558410644531e-01) (37, -3.69259640574455261230e-02) (22, 2.40860596299171447754e-01) (23, -5.08433766663074493408e-02) (24, 6.69907703995704650879e-02) (25, -9.86986607313156127930e-02) (26, 4.06740605831146240234e-02) (27, 5.99866248667240142822e-02) (28, 3.43692958354949951172e-01) (29, 1.80604636669158935547e-01) (30, 5.62500245869159698486e-02) (31, 5.08224740624427795410e-02) (32, 7.83178880810737609863e-02) (33, 1.76756703853607177734e+00) (34, 1.38210445642471313477e-01) (35, 4.75157834589481353760e-02) (36, 1.34120851755142211914e-01) (37, -2.71503869444131851196e-02) (22, 3.19460302591323852539e-01) (23, -1.58175870776176452637e-01) (24, 1.23689636588096618652e-01) (25, -1.38961598277091979980e-01) (26, 1.22114703059196472168e-01) (27, 1.21517926454544067383e-01) (28, 2.72316634654998779297e-01) (29, 1.78508311510086059570e-01) (30, 1.96599006652832031250e-01) (31, 3.32545638084411621094e-02) (32, 1.48791626095771789551e-01) (33, 1.60976731777191162109e+00) (34, 1.44516587257385253906e-01) (35, 2.44592167437076568604e-02) (36, 2.62690067291259765625e-01) (37, -3.55380252003669738770e-02) (22, -1.77928552031517028809e-01) (23, 2.07347378134727478027e-01) (24, 2.51651346683502197266e-01) (25, 4.15224313735961914062e-01) (26, 2.83936828374862670898e-01) (27, 2.64064908027648925781e-01) (28, -1.01901680231094360352e-01) (29, -1.89950808882713317871e-01) (30, -1.71549208462238311768e-02) (31, 2.71929830312728881836e-01) (32, 9.07353758811950683594e-02) (33, -1.41734945774078369141e+00) (34, 1.00966215133666992188e-01) (35, 2.09122404456138610840e-01) (36, 1.26660391688346862793e-01) (37, 1.52100056409835815430e-01) (38, 2.88606792688369750977e-01) (39, -1.06853231787681579590e-01) (40, 4.58573460578918457031e-01) (41, 4.73012737929821014404e-02) (42, 1.00048348307609558105e-01) (43, -7.86217153072357177734e-02) (44, -1.03179886937141418457e-01) (45, 2.51363515853881835938e-01) (46, 4.07029315829277038574e-03) (47, -7.71018713712692260742e-02) (48, 8.93961936235427856445e-02) (49, 2.45703056454658508301e-01) (50, 2.69645988941192626953e-01) (51, 2.49202415347099304199e-01) (52, -5.07566072046756744385e-02) (53, 5.48238515853881835938e-01) 
